2008,-1.5605749401,-1.28075609028,-1.27026288341,-1.36819948085,-1.38918589459,-1.37519495209,-1.03591459669,-1.02542138982,-1.1758240216,-1.17932175722,-1.25627194092,-1.48712249202,-1.17232628597,-0.979950826721,-0.916991585512,-0.899502907398,-0.976453091099,-0.962462148608,-1.34021759587,-1.20030817096,-0.92748479238,-1.06039874605,-0.997439504835,-0.878516493661,-1.01842591857,-1.37519495209,-1.15483760786,-0.749100275619,-0.986946297967,-0.923987056757,-0.857530079924,-1.02542138982,-1.33322212462,-1.16183307911,-0.997439504835,-0.836543666188,-0.854032344302,-0.885511964907,-1.12685572288,-1.33671986024,-1.16882855035,-0.934480263625,-0.986946297967,-0.82605045932,-1.0079327117,-0.847036873056,-1.36819948085,-1.23878326281,-0.882014229284,-0.854032344302,-0.808561781206,-0.962462148608,-1.04291006793,-1.39268363021,-1.1303534585,-0.560222551989,-0.514751988893,-0.717620655014,-0.861027815547,-1.11286478039,-1.33671986024,-1.11986025163,-0.958964412985,-0.724616126259,-0.770086689355,-0.759593482487,-1.02542138982,-1.30524023964,-1.1303534585,-0.647665942558,-0.906498378643,-0.812059516828,-0.875018758038,-1.06389648167,-1.30174250402,-1.09537610227,-0.889009700529,-0.937977999248,-0.997439504835,-1.07089195291,-1.34021759587,-1.24927646967,-1.26326741217,-0.993941769213,-0.903000643021,-0.854032344302,-0.913493849889,-1.11286478039,-1.24228099843,-1.19681043533,-0.875018758038,-0.766588953732,-0.882014229284,-0.948471206117,-1.06039874605,-1.41367004395,-1.12335798726,-0.916991585512,-0.920489321134,-0.930982528003,-0.92748479238,-1.10586930914,-1.28075609028,-1.09537610227,-0.479774632665,-0.857530079924,-0.784077631846,-0.86452555117,-1.06039874605,-1.35071080274,-1.0848828954,-0.976453091099,-0.710625183768,-0.777082160601,-0.829548194942,-1.03941233231,-1.33671986024,-0.976453091099,-0.707127448145,-0.703629712523,-0.777082160601,-0.546231609498,-1.0848828954,-1.33671986024,-1.06039874605,-0.661656885049,-0.67564782754,-0.86452555117,-0.766588953732,-0.948471206117,-1.27725835466,-1.31223571088,-0.854032344302,-0.916991585512,-0.854032344302,-0.937977999248,-1.1303534585,-1.34721306711,-1.11286478039,-1.01492818295,-0.805064045583,-0.854032344302,-0.937977999248,-1.14084666537,-1.20380590658,-1.2527742053,-1.17932175722,-0.73860706875,-1.00443497608,-1.08838063103,-1.1303534585,-1.34371533149,-1.29474703277,-1.03591459669,-0.993941769213,-0.962462148608,-1.01492818295,-1.04291006793,-1.4381541933,-1.21779684907,-0.882014229284,-1.04640780355,-1.13385119412,-1.1303534585,-1.37169721647,-1.43115872206,-1.2527742053,-1.12685572288,-1.07788742416,-1.08838063103,-1.10237157352,-1.22479232032,-1.38918589459,-1.16882855035,-0.976453091099,-0.899502907398,-1.04990553918,-1.11286478039,-1.29124929715,-1.44514966455,-1.46263834266,-1.33322212462,-1.19681043533,-1.25976967654,-1.1758240216,-1.49062022765,-1.52559758387,-1.38568815896,-1.10586930914,-1.20030817096,-1.19331269971,-1.24577873405,-1.32622665338,-1.5290953195,-1.329724389,-1.2527742053,-1.05690101042,-1.28775156153,-1.09187836665,-1.1758240216,-1.3612040096,-1.27725835466,-1.01842591857,-1.20380590658,-1.12685572288,-1.18981496409,-1.29474703277,-1.43465645768,-1.329724389,-1.06389648167,-1.11636251601,-1.16183307911,-0.976453091099,-1.20030817096,-1.56757041135,-1.34371533149,-1.18981496409,-1.22479232032,-1.07438968854,-1.12685572288,-1.34371533149,-1.39967910145,-1.37869268772,-1.18631722846,-1.22479232032,-1.27376061903,-1.22129458469,-1.39967910145,-1.50461117014,-1.47662928515,-1.01842591857,-1.18631722846,-1.04640780355,-1.19331269971,-1.39967910145,-1.60254776757,-1.35071080274,-1.04990553918,-1.11636251601,-1.11636251601,-1.02192365419,-1.35770627398,-1.63402738818,-1.50111343451,-1.2842538259,-1.17932175722,-0.99044403359,-1.09187836665,-1.02891912544,-1.4066745727,-1.26676514779,-1.08138515978,-0.986946297967,-1.02542138982,-0.937977999248,-1.08838063103,-1.37169721647,-1.41367004395,-0.868023286793,-0.889009700529,-0.868023286793,-0.885511964907,-1.0079327117,-1.37869268772,-1.02192365419,-0.983448562344,-0.616186321953,5.10261142128,-0.47277916142,-0.780579896224,-1.26676514779,-1.18281949284,-0.82605045932,-0.861027815547,-0.658159149427,-0.815557252451,-1.16183307911,-1.30524023964,-0.875018758038,-0.602195379462,-0.416815391455,-0.563720287612,-0.51125425327,-0.696634241277,-1.15133987224,-1.06039874605,-0.560222551989,-0.532240667007,-0.76309121811,-0.591702172594,-0.829548194942,-1.18981496409,-0.847036873056,-0.423810862701,-0.563720287612,-0.504258782025,-0.591702172594,-0.896005171775,-1.07788742416,-0.815557252451,-0.427308598324,-0.423810862701,-0.273408230922,-0.661656885049,-0.76309121811,-1.31573344651,-1.07788742416,-0.507756517647,-0.553227080743,-1.00443497608,-0.899502907398,-0.941475734871,-1.04990553918,-1.11286478039,-0.759593482487,-0.840041401811,-0.979950826721,-0.749100275619,-0.749100275619,-1.02542138982,-1.00443497608,-0.539236138252,-0.434304069569,-0.766588953732,-0.619684057576,-0.941475734871,-1.35420853836,-1.0534032748,-0.654661413804,-0.934480263625,-0.962462148608,-0.941475734871,-1.06039874605,-1.24228099843,-0.805064045583,-0.619684057576,-0.619684057576,0.0903562738465,-0.791073103092,-0.812059516828,-1.18631722846,-1.05690101042,-0.665154620672,-0.542733873875,-0.682643298786,-0.889009700529,-0.836543666188,-1.18631722846,-1.09187836665,-0.76309121811,-0.693136505654,-1.01143044733,-0.714122919391,-0.955466677362,-1.1758240216,-1.42066551519,-0.986946297967,-1.27725835466,-1.4836247564,-1.56757041135,-1.4836247564,-1.54658399761,-1.42766098644,-0.962462148608,-1.19681043533,-1.43115872206
2009,-1.45914060704,-1.27026288341,-1.27376061903,-1.16882855035,-0.951968941739,-1.02891912544,-1.0079327117,-0.815557252451,-1.04291006793,-1.42766098644,-1.22829005594,-0.696634241277,-0.850534608679,-0.896005171775,-0.805064045583,-0.983448562344,-1.26326741217,-1.0988738379,-0.689638770031,-0.878516493661,-0.791073103092,-0.993941769213,-1.07089195291,-1.41716777957,-1.1758240216,-0.962462148608,-0.76309121811,-0.507756517647,-0.777082160601,-0.857530079924,-1.2073036422,-0.909996114266,-0.885511964907,-0.371344828359,-0.707127448145,-0.630177264444,-0.707127448145,-1.09537610227,-0.951968941739,-0.63717273569,-0.493765575156,-0.546231609498,-0.679145563163,-0.773584424978,-1.0848828954,-1.05690101042,-0.703629712523,-0.633675000067,-0.63717273569,-0.658159149427,-0.903000643021,-0.976453091099,-0.798068574337,-0.479774632665,-0.483272368288,-0.290896909036,-0.57421349448,-0.948471206117,-1.04291006793,-0.756095746864,-0.749100275619,-0.630177264444,-0.53573840263,-0.679145563163,-0.840041401811,-0.875018758038,-0.829548194942,-0.339865207754,-0.455290483306,-0.413317655833,-0.51125425327,-0.787575367469,-1.07089195291,-0.86452555117,-0.465783690174,-0.609190850708,-0.430806333946,-0.273408230922,-0.689638770031,-1.03591459669,-0.833045930565,-0.556724816366,-0.51125425327,-0.532240667007,-0.798068574337,-0.819054988074,-0.99044403359,-1.03591459669,-0.735109333127,-0.773584424978,-0.749100275619,-0.728113861882,-0.857530079924,-0.997439504835,-1.06739421729,-0.32237652964,-0.500761046402,-0.441299540815,-0.819054988074,-0.955466677362,-1.17932175722,-1.12335798726,-0.633675000067,-0.47277916142,-0.661656885049,-0.679145563163,-0.871521022416,-1.0988738379,-0.840041401811,-0.549729345121,-0.605693115085,-0.542733873875,-0.707127448145,-0.861027815547,-1.15133987224,-0.962462148608,-0.546231609498,-0.542733873875,-0.602195379462,-0.731611597505,-0.794570838715,-1.02891912544,-0.82605045932,-0.577711230103,-0.570715758857,-0.532240667007,-0.591702172594,-0.731611597505,-1.08138515978,-0.99044403359,-0.406322184587,-0.399326713341,-0.840041401811,-0.696634241277,-0.993941769213,-0.735109333127,-1.02542138982,-0.357353885868,-0.420313127078,-0.717620655014,-0.784077631846,-0.889009700529,-1.30524023964,-1.03941233231,-0.749100275619,-0.630177264444,-0.689638770031,-0.714122919391,-1.00093724046,-1.18281949284,-0.875018758038,-0.805064045583,-0.787575367469,-0.812059516828,-0.686141034409,-0.679145563163,-1.11286478039,-0.972955355476,-0.756095746864,-0.756095746864,-0.630177264444,-0.696634241277,-0.909996114266,-1.13385119412,-1.04640780355,-0.714122919391,-0.490267839533,-0.563720287612,-0.878516493661,-0.885511964907,-1.1303534585,-1.2527742053,-0.836543666188,-0.903000643021,-0.805064045583,-0.766588953732,-0.969457619853,-1.2842538259,-1.16533081473,-0.742104804373,-0.920489321134,-0.948471206117,-1.00443497608,-1.10936704476,-1.31573344651,-1.30873797526,-1.02542138982,-0.941475734871,-0.843539137433,-0.73860706875,-0.882014229284,-1.24927646967,-1.13385119412,-0.850534608679,-0.759593482487,-0.654661413804,-0.749100275619,-0.944973470494,-1.17932175722,-1.15833534348,-0.854032344302,-0.892507436152,-0.696634241277,-0.67564782754,-0.930982528003,-1.18981496409,-1.17232628597,-0.647665942558,-0.717620655014,-0.724616126259,-0.451792747683,-1.00093724046,-1.23528552718,-1.06739421729,-0.773584424978,-0.665154620672,-0.633675000067,-1.02542138982,-1.15133987224,-1.29474703277,-1.01143044733,-0.916991585512,-0.892507436152,-0.833045930565,-0.913493849889,-0.882014229284,-1.21779684907,-1.21779684907,-0.82605045932,-0.819054988074,-0.61268858633,-1.01143044733,-1.05690101042,-1.23528552718,-1.2527742053,-0.82605045932,-0.476276897042,-0.493765575156,-0.518249724516,-0.735109333127,-1.19331269971,-0.934480263625,-0.525245195761,-0.668652356295,-0.549729345121,-0.413317655833,-0.7001319769,-0.840041401811,-0.514751988893,-0.560222551989,-0.276905966544,-0.227937667826,-0.381838035228,-0.717620655014,-0.819054988074,-0.903000643021,-0.483272368288,-0.51125425327,-0.392331242096,-0.175471633484,-0.399326713341,-1.06039874605,-0.626679528822,-0.371344828359,-0.819054988074,-0.903000643021,-0.483272368288,-0.51125425327,-0.392331242096,-0.175471633484,-0.399326713341,-1.06039874605,-0.626679528822,-0.346860679,-0.462285954551,-0.882014229284,-0.577711230103,-0.451792747683,-0.0320644729505,-0.280403702167,-0.161480690993,-0.402824448964,-0.735109333127,-0.651163678181,-0.255919552808,-0.224439932203,-0.164978426616,-0.224439932203,-0.560222551989,-0.787575367469,-0.833045930565,-0.217444460957,-0.192960311598,0.300220411213,-0.0460554154415,-0.357353885868,-0.958964412985,-0.661656885049,0.00641061890003,-0.0810327716693,0.135826836943,-0.294394644658,-0.483272368288,-0.86452555117,-0.875018758038,-0.318878794018,-0.15798295537,-0.105516921029,-0.0950237141603,-0.661656885049,-0.80156630996,-0.686141034409,-0.189462575975,-0.364349357114,-0.15798295537,-0.22094219658,-0.392331242096,-1.0079327117,-0.665154620672,-0.392331242096,-0.381838035228,-0.518249724516,-0.203453518466,-0.696634241277,-0.96595988423,-0.913493849889,-0.476276897042,-0.73860706875,-0.73860706875,-1.0848828954,-0.829548194942,-1.14084666537,-0.798068574337,-0.53573840263,-0.665154620672,-0.605693115085,-0.364349357114,-0.693136505654,-0.923987056757,-0.92748479238,-0.581208965726,-0.560222551989,-0.661656885049,-0.280403702167,-0.903000643021,-0.955466677362,-0.944973470494,-0.693136505654,-0.682643298786,-0.633675000067,-0.497263310779,-0.815557252451,-1.16533081473,-1.24577873405,-0.668652356295,-0.909996114266,-0.948471206117,-1.28075609028,-1.44165192893,-1.36470174523,-1.24577873405,-0.930982528003,-1.02891912544,-0.993941769213,-1.1303534585
2010,-1.30524023964,-1.12335798726,-1.16882855035,-0.99044403359,-0.850534608679,-0.882014229284,-0.602195379462,-0.73860706875,-0.955466677362,-0.819054988074,-0.61268858633,-0.665154620672,-0.710625183768,-0.616186321953,-0.745602539996,-0.798068574337,-0.742104804373,-0.665154620672,-0.40981992021,-0.476276897042,-0.57421349448,-0.654661413804,-0.689638770031,-0.689638770031,-0.595199908217,-0.444797276437,-0.311883322772,-0.451792747683,-0.86452555117,-0.969457619853,-0.843539137433,-0.406322184587,-0.311883322772,-0.584706701348,-0.210448989712,-0.24542634594,-0.770086689355,-0.164978426616,-0.588204436971,-0.444797276437,-0.51125425327,-0.22094219658,-0.525245195761,-0.791073103092,-0.913493849889,-0.329372000886,-0.567218023234,-0.315381058395,-0.217444460957,-0.539236138252,-0.798068574337,-0.73860706875,-0.0915259785376,-0.0215712660821,-0.367847092736,-0.462285954551,-0.577711230103,-0.486770103911,-0.61268858633,0.181297400039,-0.199955782843,-0.189462575975,-0.136996541634,-0.584706701348,-0.794570838715,-0.563720287612,-0.105516921029,-0.0880282429148,-0.210448989712,-0.304887851527,-0.609190850708,-0.441299540815,-0.595199908217,-0.11950786352,-0.217444460957,-0.259417288431,-0.40981992021,-0.255919552808,-0.82605045932,-0.777082160601,-0.623181793199,-0.227937667826,-0.0985214497831,-0.266412759676,-0.402824448964,-0.787575367469,-0.847036873056,-0.38533577085,-0.437801805192,-0.0670418291782,-0.437801805192,-0.507756517647,-0.693136505654,-0.745602539996,-0.479774632665,-0.47277916142,-0.123005599143,-0.164978426616,-0.318878794018,-0.609190850708,-0.661656885049,-0.315381058395,0.0343925038822,-0.0740373004237,0.0448857107505,-0.0950237141603,-0.57421349448,-0.518249724516,-0.0355622085732,0.139324572565,0.237261170003,0.384166066159,-0.0635440935554,-0.507756517647,-0.350358414623,-0.22094219658,0.0973517450921,0.139324572565,0.17080419317,-0.185964840352,-0.507756517647,-0.469281425797,0.0134060901456,-0.213946725335,0.272238526231,0.677975858472,0.0343925038822,-0.504258782025,-0.430806333946,-0.0110780592138,-0.0775350360465,0.0483834463733,-0.395828977719,-0.546231609498,-0.668652356295,-0.787575367469,0.615016617262,1.0977041332,0.527573226693,0.919319616443,0.510084548579,-0.0530508866871,-0.406322184587,0.00291288327726,0.279233997476,0.121835894451,0.13232910132,-0.479774632665,-0.682643298786,-0.532240667007,-0.399326713341,-0.451792747683,0.037890239505,-0.178969369107,-0.252421817185,-0.413317655833,-0.556724816366,-0.147489748502,-0.039059944196,-0.248924081562,-0.416815391455,-0.560222551989,-0.154485219747,-0.116010127897,-0.262915024053,-0.672150091918,-0.766588953732,-0.696634241277,-0.619684057576,-0.682643298786,-0.791073103092,-0.602195379462,-0.437801805192,-0.44829501206,-0.661656885049,-0.941475734871,-0.930982528003,-1.03241686106,-0.616186321953,-0.486770103911,-0.518249724516,-0.672150091918,-0.689638770031,-1.16882855035,-1.19331269971,-1.06739421729,-0.67564782754,-0.742104804373,-0.67564782754,-0.742104804373,-1.11286478039,-1.10586930914,-0.948471206117,-0.63717273569,-0.668652356295,-0.7001319769,-0.847036873056,-0.930982528003,-0.941475734871,-0.682643298786,-0.857530079924,-0.875018758038,-0.542733873875,1.55240976416,-0.514751988893,-0.381838035228,0.314211353704,-0.154485219747,0.083360802601,-0.0145757948366,-0.350358414623,-0.67564782754,-0.539236138252,0.149817779434,0.00291288327726,0.338695503063,0.128831365697,-0.255919552808,-0.227937667826,-0.343362943377,0.160310986302,0.139324572565,0.125333630074,-0.109014656651,-0.171973897861,-0.619684057576,-0.584706701348,0.114840423206,0.0938540094693,0.0169038257683,-0.0460554154415,-0.0355622085732,-0.539236138252,-0.402824448964,0.212777020644,-0.224439932203,0.146320043811,1.75178069466,0.244256641248,-0.7001319769,-0.262915024053,-0.0495531510643,0.17080419317,0.149817779434,0.349188709932,-0.40981992021,-0.679145563163,-0.259417288431,0.139324572565,0.506586812956,0.202283813775,0.083360802601,0.100849480715,-0.514751988893,1.65384409723,0.373672859291,0.454120778615,0.733939628436,0.370175123668,0.212777020644,-0.570715758857,-0.0565486223099,0.503089077334,0.499591341711,0.503089077334,0.545061904807,0.0623743888644,-0.273408230922,0.426138893633,0.723446421568,0.7129532147,0.884342260216,0.730441892814,0.363179652423,-0.539236138252,-0.206951254089,0.629007559753,6.70107660088,2.17850444064,0.887839995838,0.667482651604,-0.280403702167,0.237261170003,0.642998502244,1.01725621388,0.992772064522,0.737437364059,0.436632100501,-0.112512392274,-0.00758032359105,0.866853582102,0.866853582102,0.828378490251,1.20963167313,0.443627571746,-0.00758032359105,0.307215882458,0.947301501426,0.922817352066,0.880844524593,0.433134364878,0.415645686764,-0.206951254089,0.19528834253,0.545061904807,0.555555111675,0.496093606088,0.552057376052,0.188292871284,-0.406322184587,-0.143992012879,0.569546054166,0.810889812137,0.761921513419,0.573043789789,0.513582284202,-0.175471633484,-0.0670418291782,0.611518881639,0.405152479896,0.562550582921,0.335197767441,0.156813250679,-0.248924081562,-0.248924081562,0.594030203526,0.468111721106,0.223270227512,0.0588766532416,-0.147489748502,-0.57421349448,-0.136996541634,0.412147951141,0.454120778615,0.419143422387,0.527573226693,0.19528834253,-0.231435403448,0.00641061890003,0.489098134842,0.747930570928,1.23061808687,0.580039261035,0.391161537405,-0.0530508866871,0.153315515056,0.733939628436,0.691966800963,0.786405662778,0.464613985483,-0.000584852345512,-0.465783690174,-0.262915024053,0.114840423206,-0.0530508866871,0.0099083545228,-0.199955782843,-0.203453518466,-1.12685572288,-0.986946297967,-0.668652356295,-0.161480690993,-0.392331242096,0.0938540094693,-0.875018758038
2011,-1.01143044733,-0.469281425797,-0.252421817185,0.0588766532416,0.0273970326367,0.0798630669782,0.261745319362,-0.123005599143,-0.126503334765,0.656989444735,0.719948685945,0.205781549398,0.216274756266,1.18514752377,-0.189462575975,0.163808721925,0.667482651604,0.590532467903,0.538066433561,0.573043789789,-0.0810327716693,-0.276905966544,-0.255919552808,0.737437364059,0.412147951141,0.765419249041,0.310713618081,-0.0495531510643,-0.504258782025,-0.154485219747,0.275736261853,0.782907927155,0.037890239505,0.46111624986,0.0973517450921,-0.465783690174,-0.241928610317,0.317709089327,0.471609456729,0.454120778615,0.46111624986,-0.0180735304594,-0.560222551989,-0.196458047221,0.450623042992,0.447125307369,0.629007559753,0.380668330537,-0.140494277256,-0.497263310779,-0.241928610317,0.642998502244,1.01375847826,1.31806147744,0.380668330537,0.181297400039,-0.28390143779,0.111342687583,0.796898869646,0.58703473228,0.601025674771,0.569546054166,0.426138893633,-0.53573840263,-0.0705395648009,0.705957743454,0.538066433561,0.884342260216,0.803894340892,0.286229468722,-0.234933139071,-0.039059944196,1.89169011957,0.880844524593,0.723446421568,0.366677388045,-0.175471633484,-0.609190850708,-0.140494277256,0.513582284202,0.590532467903,0.594030203526,0.636003030999,0.17080419317,-0.273408230922,-0.269910495299,0.513582284202,0.789903398401,0.265243054985,0.408650215519,0.212777020644,-0.458788218929,-0.126503334765,0.244256641248,0.87734678897,0.415645686764,0.426138893633,0.0658721244871,-0.605693115085,-0.227937667826,0.503089077334,0.590532467903,0.541564169184,0.19528834253,0.513582284202,-0.560222551989,-0.399326713341,0.219772491889,0.275736261853,0.216274756266,0.758423777796,-0.192960311598,-0.623181793199,-0.504258782025,0.433134364878,0.450623042992,2.33940027929,1.03474489199,0.370175123668,-0.423810862701,0.10784495196,0.929812823312,0.68846906534,0.496093606088,1.40550486801,0.412147951141,-0.311883322772,-0.0180735304594,0.81438754776,0.677975858472,0.440129836124,0.48560039922,-0.0215712660821,0.0238992970139,-0.24542634594,0.0798630669782,0.352686445554,0.0134060901456,0.25824758374,-0.178969369107,-0.423810862701,-0.22094219658,0.370175123668,0.656989444735,0.597527939148,0.156813250679,0.0553789176188,-0.563720287612,-0.423810862701,-0.000584852345512,0.345690974309,0.534568697938,0.121835894451,-0.123005599143,-0.329372000886,-0.0775350360465,-0.0285667373277,0.0938540094693,0.698962272209,0.10784495196,-0.308385587149,-0.766588953732,-0.38533577085,-0.105516921029,0.163808721925,0.356184181177,0.426138893633,-0.0145757948366,-0.0950237141603,-0.40981992021,0.275736261853,0.489098134842,0.394659273028,0.286229468722,-0.0950237141603,-0.626679528822,-0.430806333946,-0.206951254089,-0.0775350360465,-0.378340299605,-0.203453518466,-0.430806333946,-0.923987056757,-0.812059516828,-0.458788218929,-0.123005599143,-0.0880282429148,0.510084548579,0.104347216338,-0.714122919391,-0.462285954551,0.209279285021,-0.0460554154415,-0.143992012879,0.100849480715,-0.273408230922,-0.500761046402,-0.703629712523,0.104347216338,0.0343925038822,-0.140494277256,-0.0460554154415,-0.130001070388,-0.392331242096,-0.672150091918,-0.210448989712,-0.0530508866871,-0.130001070388,-0.126503334765,-0.430806333946,-0.703629712523,-0.500761046402,-0.353856150245,-0.171973897861,-0.0985214497831,-0.0215712660821,0.39815700865,-0.892507436152,-0.595199908217,-0.0320644729505,0.135826836943,0.191790606907,-0.301390115904,-0.567218023234,-0.437801805192,-0.67564782754,-0.486770103911,-0.521747460138,-0.399326713341,-0.556724816366,-0.609190850708,-0.672150091918,-0.623181793199,-0.434304069569,-0.171973897861,-0.325874265263,-0.514751988893,-0.658159149427,-0.850534608679,-0.567218023234,-0.269910495299,-0.116010127897,-0.168476162239,-0.308385587149,-0.28390143779,-0.829548194942,-0.96595988423,-0.570715758857,-0.444797276437,-0.262915024053,-0.451792747683,-0.644168206935,-0.983448562344,-0.731611597505,-0.22094219658,-0.287399173413,0.0099083545228,0.0553789176188,-0.105516921029,-0.679145563163,-0.640670471313,-0.143992012879,0.317709089327,-0.0460554154415,0.146320043811,-0.266412759676,0.3596819168,-0.549729345121,0.0553789176188,0.0238992970139,-0.259417288431,-0.185964840352,1.41250033925,-0.44829501206,-0.266412759676,0.370175123668,0.695464536586,0.083360802601,0.282731733099,-0.133498806011,-0.602195379462,-0.259417288431,0.212777020644,0.188292871284,0.39815700865,0.594030203526,0.0099083545228,-0.686141034409,-0.441299540815,0.464613985483,1.58039164915,0.300220411213,0.100849480715,-0.133498806011,-0.76309121811,1.04873583449,0.219772491889,0.167306457548,0.464613985483,0.594030203526,-0.0215712660821,-0.560222551989,-0.0810327716693,0.429636629255,0.642998502244,0.83887169712,0.810889812137,0.275736261853,-0.315381058395,-0.0355622085732,0.754926042173,0.863355846479,1.11519281132,0.54855964043,0.642998502244,-0.164978426616,0.198786078152,0.789903398401,1.04873583449,0.670980387227,0.496093606088,0.167306457548,-0.11950786352,-0.0285667373277,0.608021146017,0.709455479077,0.489098134842,0.0658721244871,0.202283813775,-0.402824448964,0.104347216338,0.789903398401,0.842369432742,0.716450950323,0.513582284202,0.415645686764,-0.486770103911,-0.000584852345512,0.636003030999,0.691966800963,0.52407549107,0.356184181177,2.03859501573,0.181297400039,0.17080419317,0.905328673952,1.1116950757,0.83887169712,0.660487180358,0.212777020644,-0.591702172594,-0.455290483306,0.153315515056,-0.133498806011,-0.318878794018,-0.406322184587,-0.304887851527,-0.304887851527,-0.304887851527,-0.430806333946,-0.591702172594,-0.51125425327,-0.500761046402,-0.798068574337,-0.791073103092
2012,-0.868023286793,-0.402824448964,-0.00408258796828,-0.000584852345512,0.335197767441,0.0483834463733,-0.497263310779,-0.280403702167,0.29672267559,0.254749848117,0.457618514238,0.118338158829,0.254749848117,-0.343362943377,-0.241928610317,1.49294825858,0.216274756266,-0.416815391455,0.191790606907,0.219772491889,-0.500761046402,-0.259417288431,0.240758905626,0.499591341711,0.454120778615,0.394659273028,0.23376343438,-0.44829501206,-0.143992012879,0.695464536586,0.450623042992,0.601025674771,0.608021146017,0.0134060901456,-0.15798295537,-0.161480690993,0.380668330537,0.75142830655,0.520577755447,0.730441892814,0.251252112494,-0.287399173413,-0.0985214497831,0.604523410394,0.39815700865,0.457618514238,0.719948685945,0.349188709932,-0.339865207754,-0.28390143779,0.496093606088,0.681473594095,0.674478122849,0.968287915162,24.5535192195,4.82279257146,1.91967200456,2.09106105007,2.05958142947,2.09805652132,1.81124220025,1.11519281132,0.0273970326367,0.00641061890003,0.77591245591,1.24460902936,0.828378490251,0.880844524593,0.475107192351,-0.0705395648009,0.251252112494,0.629007559753,0.642998502244,0.531070962316,0.583536996657,0.531070962316,0.205781549398,0.19528834253,1.03124715637,0.705957743454,0.660487180358,0.275736261853,0.0938540094693,-0.57421349448,-0.123005599143,0.922817352066,0.716450950323,0.538066433561,0.636003030999,0.566048318543,-0.364349357114,-0.143992012879,0.754926042173,0.698962272209,0.42264115801,0.146320043811,-0.0180735304594,-0.570715758857,-0.301390115904,0.335197767441,0.429636629255,0.569546054166,0.75142830655,0.401654744273,-0.560222551989,-0.143992012879,0.636003030999,0.849364903988,0.992772064522,0.698962272209,0.447125307369,-0.252421817185,0.174301928793,1.20613393751,1.64335089036,1.07321998385,0.779410191532,0.349188709932,-0.234933139071,3.76647641338,1.54541429292,0.901830938329,1.16765884566,0.492595870465,0.447125307369,0.174301928793,0.499591341711,1.04174036324,1.34604336242,0.975283386408,0.856360375233,0.251252112494,-0.40981992021,6.34080983174,1.83572634961,0.880844524593,0.279233997476,0.622012088508,0.520577755447,-0.483272368288,-0.276905966544,0.226767963135,0.961292443917,0.636003030999,0.391161537405,0.125333630074,0.23376343438,0.933310558934,0.352686445554,0.464613985483,0.608021146017,0.800396605269,0.468111721106,-0.280403702167,-0.266412759676,0.184795135661,0.615016617262,0.363179652423,0.401654744273,-0.109014656651,-0.360851621491,-0.388833506473,0.314211353704,1.22712035125,21.3076205616,1.9266674758,0.733939628436,-0.0215712660821,0.0658721244871,0.503089077334,0.642998502244,0.499591341711,0.433134364878,-0.102019185406,-0.287399173413,-0.301390115904,0.212777020644,0.429636629255,0.100849480715,-0.0110780592138,-0.00408258796828,-0.416815391455,-0.469281425797,2.23097047498,0.573043789789,-0.143992012879,0.226767963135,-0.15798295537,-0.388833506473,-0.227937667826,0.408650215519,0.338695503063,0.205781549398,0.475107192351,0.29672267559,0.81438754776,-0.0250690017049,0.0623743888644,0.0588766532416,-0.0355622085732,-0.136996541634,-0.143992012879,-0.805064045583,-0.518249724516,0.19528834253,0.10784495196,0.29672267559,0.0868585382238,-0.234933139071,-0.525245195761,-0.290896909036,0.0798630669782,0.0588766532416,0.433134364878,0.0204015613911,-0.0145757948366,-0.623181793199,-0.350358414623,1.68182598221,0.310713618081,0.629007559753,0.0134060901456,0.037890239505,-0.588204436971,-0.434304069569,0.223270227512,0.160310986302,0.496093606088,-0.0320644729505,-0.192960311598,-0.469281425797,-0.553227080743,0.00291288327726,0.17080419317,0.104347216338,0.338695503063,0.335197767441,-0.308385587149,-0.140494277256,0.279233997476,0.464613985483,0.562550582921,0.310713618081,0.188292871284,-0.44829501206,-0.402824448964,-0.0285667373277,0.454120778615,0.597527939148,1.12918375381,0.426138893633,-0.259417288431,0.0588766532416,0.576541525412,0.961292443917,1.0662245126,3.22782512747,0.506586812956,0.0204015613911,1.82873087836,0.817885283383,0.905328673952,1.19913846627,1.60137806288,0.639500766622,-0.273408230922,0.237261170003,0.859858110856,0.831876225874,2.13303387754,0.919319616443,0.597527939148,0.251252112494,0.0134060901456,0.961292443917,1.64335089036,1.35303883367,1.1116950757,0.779410191532,0.125333630074,0.328202296195,0.754926042173,4.77382427274,1.38801618989,0.817885283383,0.887839995838,0.0308947682594,0.191790606907,1.13268148943,1.47895731609,1.54541429292,0.891337731461,0.726944157191,-0.0565486223099,0.415645686764,1.75527843029,1.32155921306,1.05922904135,0.992772064522,0.391161537405,-0.196458047221,0.114840423206,1.18164978815,1.30057279933,1.07671771947,0.677975858472,0.415645686764,0.366677388045,0.594030203526,1.87769917708,1.18514752377,1.10819734007,1.08021545509,0.436632100501,0.104347216338,0.0238992970139,0.87734678897,1.02774942075,0.611518881639,0.573043789789,0.279233997476,-0.22094219658,-0.0180735304594,0.642998502244,1.23761355812,0.737437364059,0.265243054985,-0.171973897861,0.167306457548,0.240758905626,1.2970750637,1.01725621388,0.901830938329,0.852862639611,0.419143422387,-0.339865207754,0.254749848117,0.719948685945,0.933310558934,1.618866741,1.05223357011,0.492595870465,-0.0600463579326,0.54855964043,1.64684862598,1.46146863797,1.00326527139,1.32855468431,0.590532467903,-0.259417288431,0.00291288327726,0.898333202707,0.499591341711,0.471609456729,0.380668330537,-0.22094219658,-0.130001070388,-0.518249724516,-0.770086689355,-0.693136505654,-0.479774632665,-0.203453518466,-0.238430874694,-0.658159149427,-0.206951254089,-0.154485219747
2013,-0.476276897042,0.419143422387,0.559052847298,0.0553789176188,-0.259417288431,-0.140494277256,0.489098134842,0.94030603018,0.709455479077,1.07671771947,0.566048318543,-0.150987484125,0.198786078152,0.761921513419,0.912324145198,1.32855468431,1.08371319071,0.380668330537,-0.136996541634,0.0518811819961,0.471609456729,1.02425168513,1.05223357011,0.779410191532,0.817885283383,0.10784495196,0.0238992970139,0.884342260216,1.02425168513,1.34604336242,0.915821880821,0.46111624986,-0.133498806011,0.324704560572,1.00676300701,1.3740252474,1.33205241993,0.968287915162,0.594030203526,0.0204015613911,0.0308947682594,1.1116950757,1.69231918908,1.36353204054,0.856360375233,0.29672267559,0.0204015613911,0.0903562738465,1.0207539495,0.894835467084,1.1886452594,1.19564073064,0.142822308188,-0.11950786352,0.737437364059,1.05922904135,1.40200713239,0.845867168365,1.1431746963,0.489098134842,-0.11950786352,0.573043789789,1.27958638559,1.76227390153,1.09070866196,1.36702977616,0.912324145198,0.083360802601,0.230265698757,1.25510223623,1.21662714438,1.2970750637,1.11869054694,0.370175123668,-0.318878794018,0.0553789176188,1.17815205253,1.12568601819,0.880844524593,1.19214299502,0.793401134024,0.0553789176188,0.191790606907,0.75142830655,2.00011992388,0.772414720287,0.926315087689,0.48560039922,-0.203453518466,-0.231435403448,0.870351317725,1.15017016755,0.905328673952,1.83222861399,2.10854972819,0.968287915162,1.15716563879,1.39501166114,1.68182598221,1.39151392552,1.90568106206,1.13617922506,0.212777020644,0.950799237048,1.28658185683,1.15716563879,1.35653656929,1.01725621388,1.10120186883,0.240758905626,0.352686445554,1.39850939676,1.49994372982,1.30057279933,1.1886452594,0.569546054166,-0.039059944196,0.338695503063,1.26209770747,1.08371319071,0.594030203526,1.10819734007,0.660487180358,0.100849480715,0.272238526231,1.10469960445,1.16765884566,0.961292443917,0.898333202707,0.39815700865,-0.140494277256,0.0099083545228,0.982278857653,0.845867168365,0.964790179539,0.803894340892,0.307215882458,-0.196458047221,0.0204015613911,0.835373961497,0.768916984664,0.765419249041,0.468111721106,0.153315515056,-0.0705395648009,-0.0600463579326,0.622012088508,0.828378490251,1.20263620189,0.849364903988,0.342193238686,-0.164978426616,-0.178969369107,0.419143422387,1.05573130573,0.663984915981,0.506586812956,0.226767963135,-0.224439932203,0.177799664416,0.562550582921,0.68846906534,0.454120778615,0.230265698757,0.0343925038822,-0.402824448964,-0.213946725335,0.594030203526,0.632505295376,0.419143422387,0.163808721925,-0.0355622085732,-0.189462575975,-0.154485219747,0.541564169184,0.622012088508,0.58703473228,0.23376343438,0.104347216338,-0.644168206935,0.104347216338,0.349188709932,0.261745319362,0.282731733099,0.377170594914,-0.0530508866871,-0.504258782025,-0.360851621491,0.42264115801,0.380668330537,1.15366790317,1.23761355812,0.282731733099,-0.241928610317,-0.171973897861,0.632505295376,0.730441892814,0.632505295376,0.562550582921,0.19528834253,-0.455290483306,-0.234933139071,0.310713618081,-0.18246710473,-0.878516493661,0.450623042992,0.121835894451,-0.542733873875,-0.57421349448,0.345690974309,0.282731733099,-0.0495531510643,-0.0740373004237,-0.51125425327,-0.57421349448,-0.297892380281,0.0938540094693,0.0099083545228,0.247754376871,0.191790606907,-0.168476162239,-0.493765575156,-0.248924081562,0.156813250679,0.527573226693,0.198786078152,0.0798630669782,-0.196458047221,-0.644168206935,-0.367847092736,-0.0215712660821,0.00291288327726,-0.0810327716693,-0.0145757948366,0.408650215519,-0.339865207754,-0.336367472132,0.216274756266,0.202283813775,0.219772491889,0.415645686764,0.272238526231,-0.294394644658,-0.255919552808,-0.0985214497831,0.723446421568,0.317709089327,0.660487180358,0.174301928793,-0.458788218929,-0.238430874694,0.391161537405,0.555555111675,0.758423777796,0.726944157191,0.506586812956,-0.304887851527,-0.273408230922,0.541564169184,0.901830938329,0.719948685945,0.531070962316,0.310713618081,-0.350358414623,0.576541525412,0.831876225874,0.768916984664,0.580039261035,0.873849053347,-0.0215712660821,-0.455290483306,-0.0320644729505,0.971785650785,0.83887169712,0.622012088508,0.702460007832,1.02425168513,-0.133498806011,0.121835894451,1.1116950757,1.52442787918,1.23761355812,0.996269800144,0.184795135661,-0.203453518466,-0.0670418291782,0.922817352066,0.824880754629,0.789903398401,0.667482651604,0.384166066159,-0.276905966544,0.0518811819961,1.04873583449,0.880844524593,0.663984915981,0.681473594095,0.765419249041,-0.0285667373277,0.188292871284,1.21662714438,0.863355846479,1.25160450061,1.12918375381,0.709455479077,-0.206951254089,0.0693698601099,0.901830938329,0.796898869646,1.25510223623,0.810889812137,0.482102663597,0.00291288327726,-0.0460554154415,0.660487180358,0.852862639611,1.11869054694,1.17115658128,0.723446421568,0.373672859291,0.160310986302,0.943803765803,0.943803765803,0.695464536586,0.859858110856,0.684971329718,-0.248924081562,-0.0880282429148,0.677975858472,0.807392076515,0.625509824131,0.128831365697,0.19528834253,-0.039059944196,0.429636629255,0.758423777796,0.975283386408,1.08371319071,1.46146863797,0.982278857653,-0.227937667826,0.191790606907,1.11869054694,1.07321998385,1.04873583449,0.653491709113,2.80459911712,-0.332869736509,-0.168476162239,0.202283813775,-0.0600463579326,0.310713618081,0.293224939967,0.00291288327726,-0.819054988074,-0.829548194942,-0.500761046402,-0.920489321134,-1.04640780355,-0.689638770031,-0.633675000067,-0.658159149427,-0.777082160601,-0.224439932203,-0.679145563163
2014,-0.773584424978,-0.0915259785376,-0.164978426616,-0.0985214497831,-0.0985214497831,-0.0985214497831,0.300220411213,0.520577755447,2.83957647334,0.639500766622,-0.224439932203,-0.18246710473,1.01725621388,0.478604927974,0.604523410394,0.789903398401,0.342193238686,0.611518881639,-0.0320644729505,0.247754376871,0.660487180358,0.212777020644,0.538066433561,0.39815700865,0.0448857107505,0.114840423206,0.884342260216,0.77591245591,1.05573130573,1.04523809886,0.639500766622,0.0308947682594,-0.102019185406,0.950799237048,1.1116950757,0.989274328899,1.52442787918,1.08021545509,0.321206824949,0.321206824949,1.37752298303,1.98962671701,1.15366790317,1.24460902936,1.02774942075,-0.039059944196,0.0553789176188,1.17465431691,1.24460902936,0.884342260216,0.884342260216,0.684971329718,-0.168476162239,-0.0285667373277,5.30897782302,6.29533926864,5.21453896121,3.56710548288,2.4793097042,0.880844524593,1.21312940876,1.88119691271,2.02110633762,1.76926937278,1.45797090235,1.02425168513,0.202283813775,0.380668330537,1.16765884566,1.30756827057,1.0662245126,1.60837353413,1.36353204054,0.128831365697,0.265243054985,1.20263620189,1.31106600619,1.73079428093,1.47545958046,0.94030603018,0.307215882458,0.849364903988,1.67133277534,1.96864030327,1.54891202854,1.93366294705,1.61187126975,0.440129836124,0.478604927974,1.52093014356,1.10819734007,1.25859997185,1.48945052296,0.947301501426,-0.0600463579326,0.282731733099,1.24460902936,1.22362261562,1.32155921306,1.19564073064,0.975283386408,-0.192960311598,0.251252112494,1.60487579851,1.26209770747,1.13967696068,0.782907927155,0.653491709113,-0.084530507292,-0.0915259785376,1.17815205253,0.989274328899,1.2970750637,1.66783503972,1.24111129374,0.279233997476,0.261745319362,1.19913846627,1.64684862598,1.10469960445,1.07321998385,1.10819734007,-0.161480690993,0.492595870465,1.01725621388,1.24810676498,1.68182598221,1.05922904135,0.803894340892,0.0938540094693,0.394659273028,0.908826409575,0.950799237048,0.982278857653,0.726944157191,0.510084548579,-0.175471633484,-0.0530508866871,0.468111721106,0.898333202707,0.866853582102,0.891337731461,0.670980387227,-0.203453518466,0.00641061890003,0.660487180358,0.716450950323,0.950799237048,0.642998502244,0.601025674771,-0.388833506473,0.209279285021,0.275736261853,0.52407549107,0.601025674771,0.604523410394,-0.0215712660821,-0.532240667007,-0.336367472132,0.282731733099,0.677975858472,0.559052847298,0.576541525412,0.209279285021,-0.371344828359,-0.315381058395,0.174301928793,0.457618514238,0.489098134842,1.10120186883,0.499591341711,-0.364349357114,0.0658721244871,0.663984915981,0.615016617262,0.705957743454,0.468111721106,0.13232910132,-0.605693115085,-0.381838035228,0.149817779434,0.363179652423,0.314211353704,0.251252112494,-0.123005599143,-0.686141034409,-0.626679528822,0.335197767441,0.401654744273,0.0134060901456,0.244256641248,0.317709089327,-0.584706701348,-0.388833506473,0.237261170003,0.184795135661,0.310713618081,0.139324572565,0.0728675957327,-0.297892380281,-0.234933139071,0.538066433561,0.384166066159,1.18514752377,0.68846906534,0.363179652423,-0.836543666188,-0.444797276437,0.317709089327,0.384166066159,0.345690974309,0.373672859291,0.0763653313555,-0.707127448145,0.216274756266,0.331700031818,0.520577755447,0.254749848117,0.338695503063,0.163808721925,-0.399326713341,-0.266412759676,0.286229468722,0.0868585382238,0.499591341711,0.475107192351,0.317709089327,-0.570715758857,-0.178969369107,0.800396605269,0.356184181177,0.42264115801,0.475107192351,0.314211353704,-0.458788218929,-0.392331242096,0.310713618081,0.363179652423,0.251252112494,0.54855964043,0.0693698601099,-0.238430874694,-0.0285667373277,0.464613985483,0.702460007832,0.604523410394,0.7129532147,0.342193238686,-0.465783690174,-0.0915259785376,1.67483051096,0.870351317725,0.908826409575,0.7129532147,0.604523410394,-0.290896909036,-0.0250690017049,0.915821880821,1.42998901737,1.12918375381,1.15366790317,0.52407549107,-0.294394644658,-0.0810327716693,1.06972224822,0.608021146017,0.831876225874,0.873849053347,0.594030203526,-0.269910495299,0.387663801782,0.94030603018,0.971785650785,0.870351317725,0.905328673952,0.597527939148,-0.0495531510643,0.0553789176188,1.11519281132,0.999767535767,0.996269800144,0.898333202707,0.870351317725,0.0204015613911,0.142822308188,0.77591245591,1.07321998385,1.30756827057,0.796898869646,1.04523809886,0.0588766532416,0.139324572565,0.754926042173,0.975283386408,0.730441892814,0.653491709113,0.513582284202,-0.395828977719,0.135826836943,0.83887169712,1.04873583449,1.05573130573,0.891337731461,0.125333630074,-0.560222551989,0.510084548579,0.87734678897,1.16066337441,1.12218828256,1.04174036324,0.698962272209,-0.346860679,0.0623743888644,1.01375847826,0.87734678897,0.922817352066,1.25859997185,0.894835467084,0.884342260216,0.464613985483,1.21312940876,1.0977041332,0.856360375233,2.4793097042,0.478604927974,-0.217444460957,0.135826836943,1.01375847826,0.642998502244,0.64999397349,0.244256641248,-0.0460554154415,0.0553789176188,0.321206824949,1.22362261562,0.880844524593,0.870351317725,1.17815205253,0.429636629255,-0.290896909036,-0.185964840352,0.870351317725,0.716450950323,0.639500766622,0.982278857653,0.52407549107,-0.126503334765,0.3596819168,0.709455479077,0.828378490251,0.447125307369,0.580039261035,-0.259417288431,-0.581208965726,-0.640670471313,-0.0425576798188,-0.24542634594,-0.588204436971,-0.868023286793,-0.525245195761,-0.857530079924,-0.780579896224,-0.444797276437,-0.175471633484,-0.875018758038
2015,-0.899502907398,-0.311883322772,-0.168476162239,-0.241928610317,0.272238526231,0.223270227512,-0.039059944196,0.342193238686,0.0553789176188,-0.619684057576,-0.203453518466,0.0483834463733,0.0728675957327,0.251252112494,0.0518811819961,-0.00758032359105,-0.427308598324,-0.28390143779,0.146320043811,0.429636629255,0.177799664416,0.219772491889,0.342193238686,-0.332869736509,-0.346860679,0.328202296195,0.454120778615,0.405152479896,0.559052847298,0.188292871284,-0.427308598324,-0.378340299605,0.726944157191,0.499591341711,0.405152479896,0.7129532147,0.520577755447,-0.18246710473,-0.164978426616,0.566048318543,0.506586812956,0.517080019825,0.492595870465,0.0693698601099,-0.500761046402,-0.374842563982,0.17080419317,0.415645686764,0.46111624986,0.307215882458,0.622012088508,0.153315515056,0.142822308188,1.03824262762,1.11869054694,0.901830938329,0.779410191532,0.545061904807,-0.259417288431,-0.0565486223099,0.793401134024,0.908826409575,0.901830938329,0.912324145198,0.419143422387,0.275736261853,0.160310986302,0.733939628436,0.87734678897,0.810889812137,0.181297400039,0.0693698601099,-0.378340299605,-0.266412759676,0.601025674771,0.642998502244,0.625509824131,0.684971329718,-0.0810327716693,-0.493765575156,-0.203453518466,0.583536996657,0.604523410394,0.943803765803,0.698962272209,0.0238992970139,-0.357353885868,-0.171973897861,0.601025674771,0.674478122849,0.684971329718,0.471609456729,-0.150987484125,-0.497263310779,-0.360851621491,0.618514352885,0.660487180358,0.803894340892,0.576541525412,0.128831365697,-0.210448989712,-0.231435403448,0.667482651604,0.580039261035,0.496093606088,0.744432835305,0.181297400039,-0.133498806011,0.265243054985,0.64999397349,0.87734678897,0.719948685945,0.758423777796,0.156813250679,-0.273408230922,0.0798630669782,0.83887169712,0.625509824131,0.901830938329,0.583536996657,-0.0355622085732,-0.406322184587,0.0273970326367,0.747930570928,0.625509824131,0.856360375233,0.527573226693,0.135826836943,-2.15169226035,-0.22094219658,0.747930570928,0.754926042173,0.46111624986,0.510084548579,0.513582284202,-0.420313127078,-0.231435403448,0.415645686764,1.05223357011,0.796898869646,0.475107192351,0.324704560572,-0.647665942558,-0.210448989712,-2.15169226035,-2.15169226035,0.321206824949,0.205781549398,0.146320043811,-0.497263310779,-0.143992012879,0.321206824949,0.639500766622,0.303718146836,0.0588766532416,-0.0110780592138,-0.521747460138,0.202283813775,0.286229468722,0.817885283383,0.268740790608,0.202283813775,-0.332869736509,-0.906498378643,-0.647665942558,-0.273408230922,-0.420313127078,-0.7001319769,-0.868023286793,-0.626679528822,-1.15833534348,-1.15833534348,-0.840041401811,-0.658159149427,-0.248924081562,-0.483272368288,-0.679145563163,-0.840041401811,-0.714122919391,-0.0565486223099,-0.147489748502,0.328202296195,-0.0285667373277,-0.109014656651,0.0693698601099,-0.76309121811,0.0134060901456,0.0134060901456,-0.28390143779,0.261745319362,0.083360802601,-0.861027815547,-0.353856150245,0.656989444735,0.29672267559,0.149817779434,0.559052847298,-0.371344828359,-0.742104804373,-0.532240667007,0.083360802601,0.037890239505,0.0553789176188,-0.227937667826,-0.18246710473,-0.67564782754,-0.710625183768,0.275736261853,-0.147489748502,0.0273970326367,-0.255919552808,-0.539236138252,-0.686141034409,-0.689638770031,-0.486770103911,-0.0285667373277,-0.130001070388,-0.00758032359105,-0.290896909036,-0.672150091918,-0.553227080743,-0.427308598324,-0.248924081562,-0.38533577085,-0.451792747683,-0.311883322772,-0.82605045932,-0.630177264444,-0.462285954551,-0.280403702167,-0.133498806011,-0.154485219747,-0.528742931384,-0.724616126259,-0.560222551989,-0.367847092736,-0.0705395648009,0.111342687583,0.0308947682594,-0.161480690993,-0.416815391455,-0.465783690174,-0.0215712660821,0.272238526231,0.39815700865,-0.0775350360465,0.104347216338,-0.682643298786,-0.413317655833,0.0763653313555,0.636003030999,0.42264115801,-0.0530508866871,-0.0355622085732,-0.693136505654,-0.248924081562,0.436632100501,0.142822308188,0.153315515056,0.520577755447,0.286229468722,-0.304887851527,0.583536996657,0.562550582921,1.63985315473,1.1886452594,0.996269800144,0.562550582921,0.212777020644,0.268740790608,0.754926042173,1.34604336242,1.23761355812,0.499591341711,0.328202296195,-0.465783690174,0.177799664416,5.3824302711,2.65419648534,1.24111129374,1.23761355812,0.954296972671,0.153315515056,0.527573226693,1.10469960445,1.19564073064,1.01725621388,0.891337731461,0.594030203526,-0.130001070388,0.156813250679,1.21312940876,0.800396605269,0.552057376052,0.691966800963,0.174301928793,-0.40981992021,-0.084530507292,1.11869054694,0.908826409575,0.884342260216,1.13268148943,0.615016617262,-0.18246710473,0.0413879751277,0.740935099682,0.611518881639,0.933310558934,1.03124715637,0.629007559753,0.0169038257683,0.139324572565,1.09420639758,1.11519281132,0.817885283383,0.817885283383,0.531070962316,-0.192960311598,0.0448857107505,0.744432835305,0.912324145198,0.702460007832,0.419143422387,0.275736261853,-0.374842563982,-0.039059944196,0.768916984664,0.412147951141,0.0308947682594,-0.406322184587,-0.588204436971,-0.633675000067,-0.22094219658,0.436632100501,0.191790606907,0.478604927974,0.282731733099,0.184795135661,-0.420313127078,-0.210448989712,0.531070962316,0.52407549107,0.594030203526,0.566048318543,-0.0565486223099,-0.490267839533,-0.434304069569,0.566048318543,0.247754376871,0.0308947682594,-0.102019185406,-0.231435403448,-0.819054988074,0.121835894451,-0.490267839533,-0.51125425327,-0.682643298786,-1.00443497608,-1.26676514779,-1.15483760786,-1.11286478039,-0.598697643839,-0.51125425327,-0.605693115085,-0.822552723697
2016,-0.80156630996,-0.696634241277,-0.595199908217,-0.0635440935554,0.436632100501,0.17080419317,0.279233997476,-0.0915259785376,-0.255919552808,-0.217444460957,0.0623743888644,-0.112512392274,0.118338158829,-0.00408258796828,-0.0460554154415,-0.707127448145,-0.374842563982,0.293224939967,0.307215882458,0.247754376871,0.0204015613911,0.0518811819961,-0.609190850708,-0.350358414623,0.3596819168,0.513582284202,0.590532467903,0.366677388045,-0.0425576798188,-0.588204436971,-0.423810862701,0.111342687583,0.205781549398,0.510084548579,0.464613985483,-0.116010127897,-0.616186321953,-0.444797276437,0.209279285021,0.412147951141,0.723446421568,0.510084548579,0.803894340892,-0.0285667373277,-0.192960311598,0.457618514238,0.842369432742,0.534568697938,0.513582284202,0.174301928793,-0.203453518466,-0.301390115904,0.636003030999,0.394659273028,0.391161537405,0.562550582921,0.0169038257683,-0.350358414623,-0.224439932203,0.684971329718,0.590532467903,0.46111624986,0.440129836124,0.310713618081,-0.40981992021,-0.350358414623,0.660487180358,0.412147951141,0.667482651604,0.580039261035,-0.0145757948366,-0.455290483306,-0.234933139071,0.492595870465,0.580039261035,0.642998502244,0.289727204345,0.0728675957327,-0.399326713341,-0.18246710473,0.695464536586,0.534568697938,0.7129532147,0.520577755447,-0.252421817185,-0.497263310779,-0.420313127078,0.709455479077,0.492595870465,0.75142830655,0.457618514238,0.0798630669782,-0.371344828359,0.0868585382238,1.21312940876,0.929812823312,0.681473594095,0.345690974309,0.0938540094693,-0.434304069569,-0.28390143779,0.503089077334,0.583536996657,0.468111721106,0.387663801782,0.0518811819961,-0.234933139071,-0.252421817185,0.926315087689,1.05573130573,0.77591245591,0.426138893633,0.0868585382238,-0.507756517647,-0.308385587149,0.740935099682,0.75142830655,0.541564169184,0.555555111675,0.0973517450921,-0.399326713341,-0.276905966544,0.642998502244,0.370175123668,0.468111721106,0.268740790608,-0.0145757948366,-0.63717273569,-0.199955782843,0.569546054166,0.646496237867,0.457618514238,0.489098134842,0.391161537405,-0.67564782754,-0.40981992021,0.660487180358,0.622012088508,0.377170594914,0.569546054166,0.135826836943,-0.57421349448,-0.413317655833,0.618514352885,0.531070962316,0.083360802601,0.205781549398,-0.297892380281,-0.843539137433,-0.598697643839,0.0273970326367,0.307215882458
